/* Generated by Edge Impulse
 *
 * Permission is hereby granted, free of charge, to any person obtaining a copy
 * of this software and associated documentation files (the "Software"), to deal
 * in the Software without restriction, including without limitation the rights
 * to use, copy, modify, merge, publish, distribute, sublicense, and/or sell
 * copies of the Software, and to permit persons to whom the Software is
 * furnished to do so, subject to the following conditions:
 *
 * The above copyright notice and this permission notice shall be included in
 * all copies or substantial portions of the Software.
 *
 * THE SOFTWARE IS PROVIDED "AS IS", WITHOUT WARRANTY OF ANY KIND, EXPRESS OR
 * IMPLIED, INCLUDING BUT NOT LIMITED TO THE WARRANTIES OF MERCHANTABILITY,
 * FITNESS FOR A PARTICULAR PURPOSE AND NONINFRINGEMENT. IN NO EVENT SHALL THE
 * AUTHORS OR COPYRIGHT HOLDERS BE LIABLE FOR ANY CLAIM, DAMAGES OR OTHER
 * LIABILITY, WHETHER IN AN ACTION OF CONTRACT, TORT OR OTHERWISE, ARISING FROM,
 * OUT OF OR IN CONNECTION WITH THE SOFTWARE OR THE USE OR OTHER DEALINGS IN THE
 * SOFTWARE.
 */
// Generated on: 03.09.2022 11:56:51

#include <stdio.h>
#include <stdlib.h>
#include "edge-impulse-sdk/tensorflow/lite/c/builtin_op_data.h"
#include "edge-impulse-sdk/tensorflow/lite/c/common.h"
#include "edge-impulse-sdk/tensorflow/lite/micro/micro_mutable_op_resolver.h"
#include "edge-impulse-sdk/porting/ei_classifier_porting.h"

#if EI_CLASSIFIER_PRINT_STATE
#if defined(__cplusplus) && EI_C_LINKAGE == 1
extern "C" {
    extern void ei_printf(const char *format, ...);
}
#else
extern void ei_printf(const char *format, ...);
#endif
#endif

#if defined __GNUC__
#define ALIGN(X) __attribute__((aligned(X)))
#elif defined _MSC_VER
#define ALIGN(X) __declspec(align(X))
#elif defined __TASKING__
#define ALIGN(X) __align(X)
#endif

#ifndef EI_MAX_SCRATCH_BUFFER_COUNT
#define EI_MAX_SCRATCH_BUFFER_COUNT 4
#endif // EI_MAX_SCRATCH_BUFFER_COUNT

#ifndef EI_MAX_OVERFLOW_BUFFER_COUNT
#define EI_MAX_OVERFLOW_BUFFER_COUNT 10
#endif // EI_MAX_OVERFLOW_BUFFER_COUNT

using namespace tflite;
using namespace tflite::ops;
using namespace tflite::ops::micro;

namespace {

constexpr int kTensorArenaSize = 672;

#if defined(EI_CLASSIFIER_ALLOCATION_STATIC)
uint8_t tensor_arena[kTensorArenaSize] ALIGN(16);
#elif defined(EI_CLASSIFIER_ALLOCATION_STATIC_HIMAX)
#pragma Bss(".tensor_arena")
uint8_t tensor_arena[kTensorArenaSize] ALIGN(16);
#pragma Bss()
#elif defined(EI_CLASSIFIER_ALLOCATION_STATIC_HIMAX_GNU)
uint8_t tensor_arena[kTensorArenaSize] ALIGN(16) __attribute__((section(".tensor_arena")));
#else
#define EI_CLASSIFIER_ALLOCATION_HEAP 1
uint8_t* tensor_arena = NULL;
#endif

static uint8_t* tensor_boundary;
static uint8_t* current_location;

template <int SZ, class T> struct TfArray {
  int sz; T elem[SZ];
};
enum used_operators_e {
  OP_FULLY_CONNECTED, OP_SOFTMAX,  OP_LAST
};
struct TensorInfo_t { // subset of TfLiteTensor used for initialization from constant memory
  TfLiteAllocationType allocation_type;
  void* data;
  TfLiteIntArray* dims;
  size_t bytes;
};
struct NodeInfo_t { // subset of TfLiteNode used for initialization from constant memory
  struct TfLiteIntArray* inputs;
  struct TfLiteIntArray* outputs;
  void* builtin_data;
  used_operators_e used_op_index;
};

TfLiteContext ctx{};
TfLiteTensor tflTensors[11];
TfLiteEvalTensor tflEvalTensors[11];
TfLiteRegistration registrations[OP_LAST];
TfLiteNode tflNodes[4];

const TfArray<2, int> tensor_dimension0 = { 2, { 1,99 } };
const ALIGN(16) float tensor_data1[6] = { -1.6125167608261108, -2.8078286647796631, 4.4002947807312012, -2.2288374900817871, -1.1995141506195068, 3.503962516784668, };
const TfArray<1, int> tensor_dimension1 = { 1, { 6 } };
const ALIGN(16) float tensor_data2[10] = { 0.15068131685256958, -0.16681744158267975, -0.042032014578580856, -0.2954651415348053, 0.87475591897964478, -0.22819723188877106, 0.978141188621521, -0.31605511903762817, -0.17260047793388367, -0.20760107040405273, };
const TfArray<1, int> tensor_dimension2 = { 1, { 10 } };
const ALIGN(16) float tensor_data3[20] = { 0.56520795822143555, -0.041190743446350098, -0.016796968877315521, -0.15574730932712555, 0.58458799123764038, -0.10078001022338867, -0.4211500883102417, 0.51190036535263062, -0.059906881302595139, 0.60436791181564331, -0.13024328649044037, 0.0057446765713393688, -0.21819630265235901, -0.20592221617698669, 0.51264047622680664, -0.092316605150699615, -0.69214224815368652, -0.022193612530827522, 0, -0.14510942995548248, };
const TfArray<1, int> tensor_dimension3 = { 1, { 20 } };
const ALIGN(16) float tensor_data4[20*99] = { 
  -0.57986646890640259, 0.55238914489746094, -0.6052517294883728, 0.80110478401184082, 0.29710653424263, 0.34332689642906189, 0.13433647155761719, 0.073228552937507629, -0.12760540843009949, 0.21833217144012451, 0.43744245171546936, -0.15587930381298065, 0.4243471622467041, -0.4778328537940979, 0.75961935520172119, 0.49995845556259155, 0.41916769742965698, 0.14080210030078888, 0.24992813169956207, -0.13744634389877319, 0.23578658699989319, -0.089143216609954834, 0.084729954600334167, -0.19917187094688416, -0.75606215000152588, 0.78628015518188477, 0.28684309124946594, 0.56263691186904907, 0.42610204219818115, 0.32010948657989502, 0.12266278266906738, 0.16970425844192505, 0.50246536731719971, -0.083596177399158478, 0.74254751205444336, -0.59560686349868774, 0.68671542406082153, 0.57738041877746582, 0.50848758220672607, 0.4702528715133667, 0.54141539335250854, 0.42787820100784302, 0.49556466937065125, 0.55629056692123413, -0.18411460518836975, -0.46124342083930969, -1.0464857816696167, 0.81303673982620239, 0.27149936556816101, 0.3580145537853241, 0.43116775155067444, 0.40493401885032654, -0.026894733309745789, 0.36158913373947144, 0.27716740965843201, 0.1219879686832428, 0.43516185879707336, -0.91307121515274048, 0.86233097314834595, 0.55243736505508423, 0.56410664319992065, 0.51609236001968384, 0.35823622345924377, 0.30721595883369446, 0.34250319004058838, 0.47314178943634033, 0.033938083797693253, -0.12421540915966034, -0.68105727434158325, 0.35195666551589966, 0.49978762865066528, 0.18069231510162354, 0.30613139271736145, 0.30660524964332581, 0.19535194337368011, 0.48280537128448486, 0.43949106335639954, 0.011310667730867863, 0.61002951860427856, 0.11592300236225128, 0.61343419551849365, 0.35403269529342651, 0.28103664517402649, 0.39452400803565979, 0.20654888451099396, 0.23059083521366119, 0.12474861741065979, 0.2957741916179657, 0.00031266454607248306, -1.3814724683761597, -0.042588923126459122, 0.27169132232666016, 0.32926753163337708, 0.41087603569030762, 0.30467644333839417, 0.20562218129634857, 0.28387048840522766, 0.35154372453689575, 0.28963932394981384, 
  -0.010608562268316746, 0.080677822232246399, 0.056576196104288101, -0.12818685173988342, 0.0011353616137057543, 0.16494797170162201, 0.098941758275032043, 0.14097504317760468, -0.21961586177349091, 0.10694088786840439, 0.079105585813522339, -0.13932265341281891, -0.0010432901326566935, -0.14925655722618103, -0.16856127977371216, -0.13276374340057373, -0.12638048827648163, -0.22825562953948975, 0.1106874868273735, 0.057145204395055771, -0.057877220213413239, -0.1626870334148407, -0.22868034243583679, -0.12682513892650604, 0.10451610386371613, -0.1695844978094101, 0.0076072374358773232, 0.057852383702993393, -0.16356146335601807, -0.032591775059700012, 0.13325588405132294, 0.16133101284503937, -0.25425434112548828, -0.080015949904918671, -0.17193081974983215, 0.23926155269145966, -0.1150796189904213, 0.078020110726356506, 0.11011919379234314, -0.15252648293972015, -0.1566229909658432, -0.0051649422384798527, 0.0010060543427243829, -0.035458799451589584, -0.21731016039848328, -0.24808570742607117, 0.10125219076871872, -0.052739538252353668, -0.083429493010044098, -0.16440491378307343, 0.094226241111755371, 0.17611658573150635, -0.24459844827651978, -0.14913551509380341, 0.15771040320396423, -0.085131607949733734, -0.18297290802001953, 0.25891676545143127, -0.087259694933891296, -0.21045984327793121, 0.14323855936527252, -0.028506083413958549, -0.16927297413349152, 0.087790772318840027, -0.12141481041908264, -0.15812559425830841, 0.041412148624658585, -0.12950590252876282, 0.16855037212371826, -0.095450997352600098, -0.26578754186630249, 0.071085460484027863, -0.10072781890630722, -0.16460825502872467, 0.074137113988399506, -0.017495561391115189, -0.21220667660236359, -0.23328728973865509, 0.11407097429037094, -0.16630977392196655, 0.12713991105556488, -0.17239964008331299, -0.2316347062587738, -0.26283487677574158, -0.14244787395000458, -0.073649592697620392, -0.22185586392879486, 0.13079310953617096, -0.10778864473104477, -0.17199942469596863, 0.20742841064929962, -0.053959313780069351, -0.23134636878967285, -0.19719617068767548, -0.26654970645904541, 0.14422084391117096, -0.033825591206550598, 0.14524824917316437, -0.26234427094459534, 
  -0.045000761747360229, -0.22550733387470245, -0.15858560800552368, 0.063052766025066376, -0.029011022299528122, 0.021958388388156891, -0.23933511972427368, -0.079827085137367249, -0.16597996652126312, -0.004609186202287674, -0.10128111392259598, -0.096887968480587006, -0.15484176576137543, -0.029425537213683128, 0.087935812771320343, -0.21366468071937561, -0.17889285087585449, -0.078749224543571472, 0.15827850997447968, -0.23909428715705872, 0.12384595721960068, -0.056756913661956787, -0.15818755328655243, 0.083128862082958221, -0.088504165410995483, 0.15660536289215088, -0.0040528313256800175, -0.14026652276515961, -0.061116479337215424, -0.15838867425918579, -0.16982465982437134, 0.14124947786331177, -0.21824496984481812, 0.044021472334861755, -0.15755797922611237, 0.088468149304389954, 0.021847182884812355, -0.059954758733510971, -0.13627128303050995, -0.16700653731822968, 0.15384696424007416, -0.067664377391338348, -0.03478410467505455, -0.044997494667768478, -0.095925495028495789, 0.016322232782840729, 0.17488110065460205, -0.08647754043340683, 0.19450655579566956, -0.20144684612751007, 0.17798623442649841, -0.03228754922747612, 0.014018137007951736, -0.1797705739736557, 0.11437027901411057, 0.057222384959459305, 0.1933140903711319, 0.073811993002891541, 0.030859161168336868, 0.12827129662036896, 0.041946873068809509, -0.24897964298725128, -0.23094242811203003, 0.040666244924068451, 0.065807253122329712, -0.20017166435718536, -0.15059396624565125, 0.022316472604870796, 0.14328792691230774, 0.16508716344833374, 0.12635162472724915, 0.062138013541698456, -0.11623025685548782, 0.17913427948951721, -0.10929606109857559, 0.095334753394126892, -0.18754744529724121, -0.10062059015035629, -0.16784578561782837, -0.041142541915178299, 0.017292540520429611, -0.13798357546329498, -0.19416311383247375, 0.036799430847167969, 0.14706328511238098, 0.18340778350830078, -0.053513176739215851, 0.083128489553928375, -0.20363786816596985, 0.05353313684463501, -0.044059712439775467, 0.021407613530755043, -0.24598896503448486, -0.10397594422101974, 0.18386903405189514, 0.04177691787481308, 0.11538854986429214, -0.05751931294798851, 0.071528702974319458, 
  -0.40184089541435242, -0.032777465879917145, -0.091299355030059814, -0.064515277743339539, -0.091244213283061981, -0.083675213158130646, -0.30261406302452087, -0.11127112060785294, -0.10898156464099884, 0.046438299119472504, -0.14432375133037567, -0.29370585083961487, -0.07430141419172287, 0.23085737228393555, -0.11666436493396759, -0.23208118975162506, -0.17843331396579742, -0.1635948121547699, 0.096518784761428833, 0.020481158047914505, -0.3316846489906311, -0.25035727024078369, 0.12909418344497681, -0.062462728470563889, 0.058986064046621323, 0.079156883060932159, -0.086609490215778351, -0.1667691171169281, 0.078359097242355347, -0.041860025376081467, -0.076417624950408936, 0.086483113467693329, -0.065201073884963989, -0.36451080441474915, -0.022230293601751328, 0.29300567507743835, -0.098268955945968628, -0.18500478565692902, -0.30422574281692505, -0.12834814190864563, -0.12295545637607574, -0.17345459759235382, -0.18584266304969788, -0.013875581324100494, -0.2647937536239624, -0.13399791717529297, 0.29402220249176025, -0.29931718111038208, 0.0072157233953475952, 0.020260000601410866, 0.076210178434848785, -0.23865614831447601, -0.19076474010944366, 0.092619702219963074, -0.30805346369743347, -0.22790418565273285, 0.066643834114074707, 0.077007211744785309, -0.0022401572205126286, -0.28371709585189819, -0.33554747700691223, -0.24793232977390289, -0.17106802761554718, 0.021778590977191925, -0.24453003704547882, -0.059083659201860428, -0.14184199273586273, -0.12050358206033707, -0.031242802739143372, -0.065545104444026947, -0.037394274026155472, -0.21833455562591553, -0.14113309979438782, -0.27261906862258911, -0.1112479642033577, -0.29730695486068726, -0.32683774828910828, -0.051769431680440903, -0.14269299805164337, 0.25645262002944946, -0.03133055567741394, -0.2825685441493988, -0.28120920062065125, -0.13263452053070068, -0.042549870908260345, -0.03641200065612793, 0.012227275408804417, -0.27320286631584167, 0.028718188405036926, -0.2001512199640274, 0.10283558070659637, -0.3120063841342926, -0.24778014421463013, -0.023225912824273109, -0.032969731837511063, -0.34718862175941467, -0.32928574085235596, -0.25450444221496582, -0.039486490190029144, 
  0.080945588648319244, -0.24476386606693268, -0.6853562593460083, 0.78217947483062744, 0.5575178861618042, 0.66408467292785645, 0.21185296773910522, 0.22048436105251312, 0.22673989832401276, 0.27780216932296753, 0.2641867995262146, 0.11253882199525833, -0.063144668936729431, 0.039102327078580856, 0.23187810182571411, 0.33351370692253113, 0.17120322585105896, 0.14501224458217621, 0.20675578713417053, 0.18733745813369751, 0.13478560745716095, 0.046527624130249023, 0.15697464346885681, -0.49453148245811462, -0.88374441862106323, 0.4402691125869751, 0.59621560573577881, 0.38394811749458313, 0.38074034452438354, 0.10037120431661606, 0.064286835491657257, -0.11734391748905182, -0.1382131427526474, 0.21976613998413086, -0.26552093029022217, -0.40095299482345581, 0.69780224561691284, 0.55847162008285522, 0.27416810393333435, 0.35042980313301086, 0.49397581815719604, 0.14046615362167358, 0.22005634009838104, 0.36599379777908325, -0.13686773180961609, -0.030770676210522652, 0.10140552371740341, 0.56786072254180908, 0.45210137963294983, 0.34342065453529358, 0.34059572219848633, -0.024071482941508293, 0.21188250184059143, 0.0067590107209980488, 0.30144968628883362, 0.036044064909219742, 0.011665402911603451, -0.67006176710128784, 0.60457086563110352, 0.50993889570236206, 0.23482468724250793, 0.39944478869438171, 0.23218381404876709, 0.18546713888645172, 0.46937599778175354, 0.24226018786430359, 0.0016711433418095112, 0.29896146059036255, -0.15309087932109833, 0.33686730265617371, 0.4178902804851532, 0.4911733865737915, 0.47711876034736633, 0.54502809047698975, 0.5330769419670105, 0.57866233587265015, 0.57001125812530518, -0.028057023882865906, 0.058096863329410553, 0.010034823790192604, 0.52258020639419556, 0.63511300086975098, 0.64707672595977783, 0.38085284829139709, 0.64933842420578003, 0.49702784419059753, 0.47271174192428589, 0.40641334652900696, -0.091075345873832703, -0.34156394004821777, -0.41397520899772644, 0.59297597408294678, 0.57998043298721313, 0.40088075399398804, 0.6844019889831543, 0.48124861717224121, 0.35208261013031006, 0.56533372402191162, 0.6900869607925415, 
  0.59701240062713623, -1.2245874404907227, -0.037703465670347214, -0.42439046502113342, -0.0049765743315219879, 0.018485603854060173, -0.072572290897369385, 0.023934649303555489, 0.14299876987934113, -0.2132895290851593, -0.21676570177078247, -0.083097606897354126, -0.24463805556297302, 0.56254130601882935, -0.093181110918521881, 0.16861723363399506, 0.049888957291841507, 0.23435524106025696, 0.38917827606201172, 0.51772969961166382, 0.16239774227142334, 0.0058905677869915962, 0.099253639578819275, -0.14018340408802032, 0.2417943924665451, -0.5312960147857666, -0.24243840575218201, -0.45431673526763916, -0.35917806625366211, -0.32549396157264709, -0.15293291211128235, -0.19729748368263245, -0.51184934377670288, 0.51810562610626221, -0.99454635381698608, 0.040993768721818924, -0.39576989412307739, 0.054103966802358627, 0.16116239130496979, -0.24537362158298492, -0.046323820948600769, 0.19823490083217621, 0.16766132414340973, -0.00080356484977528453, -0.054943021386861801, 0.75975847244262695, 0.62725472450256348, -0.17455585300922394, -0.00012933493417222053, 0.041361723095178604, 0.0081116510555148125, 0.12754584848880768, 0.11601749062538147, 0.045366272330284119, 0.047098647803068161, 0.14462369680404663, -0.16924363374710083, 0.59775787591934204, -0.39545688033103943, -0.13782297074794769, -0.25079852342605591, -0.2782008945941925, -0.0099141029641032219, -0.048484485596418381, -0.1463666558265686, -0.29534649848937988, 0.043259661644697189, 0.75274753570556641, 0.23609271645545959, -0.28394711017608643, -0.13896970450878143, -0.021217396482825279, -0.058897331357002258, -0.11426416039466858, 0.026748012751340866, -0.10481898486614227, 0.1198761910200119, 0.014646745286881924, -0.49485835433006287, -0.07935333251953125, -0.26074469089508057, 0.1811576634645462, 0.18295460939407349, 0.11894770711660385, 0.36028939485549927, 0.40110251307487488, 0.080853179097175598, 0.19012312591075897, -0.024590009823441505, 1.7636988162994385, -0.19752243161201477, 0.040191177278757095, -0.050529640167951584, 0.18216605484485626, -0.037253580987453461, 0.16251763701438904, 0.29833713173866272, 0.367025226354599, -0.018522262573242188, 
  -0.297446608543396, -0.36689856648445129, 0.14955970644950867, -0.3420429527759552, -0.18588034808635712, -0.0031492267735302448, 0.015440618619322777, -0.056515976786613464, -0.060925036668777466, 0.1423867791891098, -0.17678409814834595, -0.13050934672355652, -0.39932453632354736, -0.15626436471939087, -0.13244456052780151, -0.14690999686717987, -0.21791668236255646, -0.052929487079381943, -0.064990729093551636, -0.17579439282417297, -0.062949232757091522, -0.14518789947032928, 0.065591953694820404, -0.37242898344993591, 0.36500230431556702, -0.3827037513256073, -0.363331139087677, -0.20166529715061188, -0.17990730702877045, -0.25772237777709961, -0.056401073932647705, -0.24175798892974854, -0.33803668618202209, -0.16558332741260529, -0.72548186779022217, 0.12821444869041443, -0.23694902658462524, 0.013659381307661533, -0.094210349023342133, -0.1879710853099823, 0.1157713308930397, -0.0043662679381668568, -0.22576668858528137, -0.16980978846549988, 0.0065154163166880608, 0.21137705445289612, 0.18475931882858276, -0.14325021207332611, -0.097581326961517334, -0.089692689478397369, -0.094174623489379883, -0.11743701994419098, 0.031004387885332108, -0.20427089929580688, -0.34472408890724182, -0.023249074816703796, -0.47185373306274414, 0.36917209625244141, -0.37448340654373169, -0.23609927296638489, -0.17092077434062958, -0.31649178266525269, -0.18649753928184509, -0.25416284799575806, -0.2951807975769043, -0.41230106353759766, -0.052598390728235245, 0.0525362528860569, 0.47178593277931213, -0.39619690179824829, -0.51925003528594971, -0.20020638406276703, -0.3558308482170105, -0.21308831870555878, -0.38580194115638733, -0.42936387658119202, -0.25768205523490906, -0.035237792879343033, -0.016586184501647949, 0.29341134428977966, -0.24637807905673981, -0.26640766859054565, -0.37230467796325684, -0.29431489109992981, -0.17817679047584534, -0.39123716950416565, -0.37726747989654541, -0.12097903341054916, 0.0077249105088412762, 0.14547932147979736, 0.22405296564102173, -0.41501900553703308, -0.34250307083129883, -0.17918217182159424, -0.55311930179595947, -0.31058329343795776, -0.19465120136737823, -0.5001528263092041, -0.14405210316181183, 
  0.27778080105781555, -0.24377554655075073, -1.1040962934494019, 0.33976545929908752, 0.48396095633506775, 0.85339546203613281, 0.63262701034545898, 0.45442691445350647, 0.92833626270294189, 0.47475323081016541, 0.71090817451477051, -0.082683712244033813, -0.2901289165019989, 0.50713849067687988, 0.22195504605770111, 0.56794458627700806, 0.60522031784057617, 0.42416757345199585, 0.64364743232727051, 0.60181450843811035, 0.5656890869140625, 0.43013700842857361, 0.30194446444511414, -1.1281967163085938, -0.40645647048950195, -0.05297459289431572, 0.62014317512512207, 0.46585875749588013, 0.3634110689163208, 0.52337980270385742, 0.29760098457336426, 0.52116364240646362, 0.0071785319596529007, 0.23112256824970245, -0.36732292175292969, -0.93015259504318237, 0.18495737016201019, 0.71621429920196533, 0.77262037992477417, 0.75063967704772949, 0.76295238733291626, 0.61853498220443726, 0.89464932680130005, 0.56458169221878052, -0.12117490172386169, 0.41037493944168091, 0.17020334303379059, 0.5289875864982605, 0.6667635440826416, 0.64211040735244751, 0.84755140542984009, 0.74510294198989868, 0.62777787446975708, 0.8886600136756897, 0.76042294502258301, 0.007175153587013483, -1.1943399906158447, 0.22571586072444916, 0.076799146831035614, 0.3101252019405365, 0.32160738110542297, 0.37871396541595459, 0.38791286945343018, 0.65489685535430908, 0.11401061713695526, 0.29405713081359863, 0.051749773323535919, 0.95191407203674316, 0.085956983268260956, 0.2328396737575531, 0.24554431438446045, 0.63806521892547607, 0.37291544675827026, 0.66840863227844238, 0.54525798559188843, 0.55942583084106445, 0.47847625613212585, -0.034264717251062393, 0.033970169723033905, -0.0026110208127647638, 0.57482099533081055, 0.68367302417755127, 0.45214101672172546, 0.44367703795433044, 0.34544587135314941, 0.57087349891662598, 0.62533408403396606, 0.27997055649757385, -0.11332151293754578, 0.95639139413833618, -0.9714704155921936, 0.17632678151130676, 0.26258611679077148, 0.25399371981620789, 0.27335816621780396, 0.32030850648880005, 0.27137461304664612, 0.28879445791244507, 0.28778749704360962, 
  -0.0023459235671907663, 0.12463928014039993, 0.14882838726043701, -0.27559125423431396, 0.075040288269519806, 0.03861430287361145, -0.13609814643859863, -0.10824666917324066, 0.02890404686331749, -0.23911003768444061, -0.28503924608230591, 0.14653119444847107, 0.0088030872866511345, -0.049835585057735443, -0.28660207986831665, -0.20049527287483215, -0.024858839809894562, -0.10209792107343674, 0.095888696610927582, -0.065777450799942017, -0.09138081967830658, -0.12669317424297333, -0.11105073243379593, -0.10578241944313049, -0.054830208420753479, 0.1322113424539566, -0.25561615824699402, -0.015017779543995857, 0.10989329218864441, -0.069615975022315979, -0.14444546401500702, 0.015624213963747025, -0.16317827999591827, 0.017880415543913841, 0.18611815571784973, 0.13432265818119049, -0.09820576012134552, -0.038309473544359207, -0.25281086564064026, -0.010461284779012203, 0.046918436884880066, -0.24621656537055969, -0.22045420110225677, 0.082451678812503815, -0.12569601833820343, 0.021806104108691216, 0.20941147208213806, 0.045454081147909164, -0.21805614233016968, 0.12464652210474014, -0.28586536645889282, -0.22913210093975067, -0.016803430393338203, -0.21872445940971375, -0.12893660366535187, -0.070626452565193176, -0.17396731674671173, 0.11623568832874298, 0.065677173435688019, -0.00090115505736321211, -0.10313832759857178, 0.096761308610439301, -0.1844625324010849, 0.153121218085289, 0.12264686077833176, 0.12820155918598175, -0.27271580696105957, 0.017642131075263023, 0.054198741912841797, -0.28364294767379761, 0.025645742192864418, -0.20717757940292358, 0.039235256612300873, 0.15875113010406494, -0.21468125283718109, 0.14338399469852448, 0.034893855452537537, 0.041566729545593262, 0.20348447561264038, 0.026818849146366119, -0.16438890993595123, -0.11832617223262787, 0.090551815927028656, -0.13797570765018463, 0.049585882574319839, -0.083248287439346313, 0.035612843930721283, 0.018809711560606956, 0.022950084879994392, -0.021095722913742065, 0.23612600564956665, -0.098280884325504303, -0.27107596397399902, -0.11681701987981796, -0.0469183549284935, 0.027276881039142609, -0.10765383392572403, -0.26207640767097473, 0.14214025437831879, 
  -0.48035928606987, 0.44385793805122375, -0.066345863044261932, 0.71576261520385742, -0.13198551535606384, -0.052379906177520752, -0.14756070077419281, -0.3744051456451416, -0.40617454051971436, -0.44900950789451599, -0.35819289088249207, -0.093399778008460999, 0.038186158984899521, -0.67122930288314819, 0.50311440229415894, 0.03343847393989563, 0.090889208018779755, 0.21153469383716583, 0.037154681980609894, -0.43266910314559937, -0.088005848228931427, -0.28048694133758545, -0.095128074288368225, 0.10660194605588913, -0.22082562744617462, 0.46359455585479736, 0.089785128831863403, -0.1022283211350441, 0.16697807610034943, -0.072711504995822906, -0.51227289438247681, -0.23755605518817902, -0.25044193863868713, -0.41251751780509949, 0.18430466949939728, -0.067601189017295837, 0.67570585012435913, 0.46903204917907715, 0.28770896792411804, 0.50409173965454102, 0.030500130727887154, -0.1266375333070755, 0.22570621967315674, 0.36580237746238708, 0.062482859939336777, -0.18179702758789062, -0.77761632204055786, 0.48882824182510376, 0.13747379183769226, 0.28698062896728516, 0.049661677330732346, 0.20540215075016022, -0.22999320924282074, 0.13023220002651215, 0.13445861637592316, -0.20511859655380249, 0.36591652035713196, -0.28882890939712524, 0.78819328546524048, 0.46455103158950806, 0.21326452493667603, 0.26194220781326294, 0.42588174343109131, 0.0040934369899332523, 0.35918512940406799, 0.42520329356193542, 0.01976131834089756, 0.25529661774635315, -0.72017568349838257, 0.4948851466178894, 0.23073902726173401, 0.10907120257616043, 0.089246243238449097, 0.2121717780828476, 0.2094750851392746, 0.15826529264450073, 0.3225536048412323, -0.014653179794549942, 0.14989756047725677, -0.11824561655521393, 0.37744301557540894, -0.0094949798658490181, 0.067395731806755066, 0.20634008944034576, -0.099798157811164856, 0.17415747046470642, 0.040978975594043732, 0.029772475361824036, -0.0039186473004519939, -0.95638519525527954, -0.37141254544258118, 0.4165579080581665, 0.38787165284156799, 0.08444744348526001, 0.11371725797653198, 0.1791892945766449, 0.21962225437164307, 0.051375683397054672, 0.10123536735773087, 
  0.47339671850204468, -1.2821589708328247, -0.71296840906143188, -0.57598495483398438, 0.32197719812393188, 0.022906582802534103, 0.14668062329292297, 0.18966217339038849, 0.46108847856521606, 0.40407854318618774, 0.18477253615856171, 0.20846575498580933, -0.42355597019195557, 0.76349765062332153, -0.43549960851669312, -0.19760434329509735, -0.15621522068977356, 0.082748360931873322, -0.020120855420827866, 0.124687559902668, -0.044288948178291321, 0.0039199409075081348, 0.3518393337726593, -0.35260993242263794, 0.071757011115550995, -0.57191532850265503, -0.35482695698738098, -0.10255789011716843, -0.22944319248199463, -0.36486133933067322, 0.19386853277683258, -0.19595086574554443, -0.48342183232307434, 0.45161831378936768, -0.71481257677078247, -0.15102946758270264, -0.48910421133041382, 0.076474562287330627, -0.12287725508213043, -0.070691540837287903, -0.003282732330262661, 0.31149816513061523, 0.30711266398429871, 0.19393226504325867, 0.077277638018131256, 0.65823566913604736, 0.81744205951690674, -0.2740638256072998, -0.14631636440753937, -0.24815981090068817, 0.13853663206100464, -0.089549556374549866, -0.080285228788852692, 0.042979523539543152, 0.10889445245265961, -0.056183032691478729, -0.66850954294204712, 0.42994531989097595, -0.76905304193496704, 0.041968412697315216, -0.31392604112625122, -0.21312613785266876, -0.017434176057577133, -0.20824892818927765, -0.2963775098323822, -0.35239917039871216, 0.0010102150263264775, 0.32168230414390564, 0.31058028340339661, -0.28048530220985413, -0.049989618360996246, 0.0013852346455678344, -0.1045832484960556, -0.057979244738817215, 0.17359855771064758, -0.041402637958526611, -0.14310258626937866, -0.0022213403135538101, -0.3438650369644165, -0.24316950142383575, 0.083000965416431427, 0.35709267854690552, 0.03184451162815094, -0.038486164063215256, 0.021513303741812706, 0.3571341335773468, 0.30896103382110596, 0.040211565792560577, 0.029836852103471756, 1.5898240804672241, -0.15648429095745087, -0.15194457769393921, 0.10547581315040588, 0.011194157414138317, 0.058202236890792847, -0.087103955447673798, 0.26447957754135132, 0.026058632880449295, 0.20343217253684998, 
  0.1852283775806427, 0.1931646317243576, -0.41564810276031494, -0.16840778291225433, 0.039895784109830856, 0.18597492575645447, 0.017358958721160889, 0.15164460241794586, 0.21939279139041901, 0.25060486793518066, -0.018533574417233467, 0.079260922968387604, -0.22909261286258698, 0.79723531007766724, 0.0071564135141670704, 0.44172477722167969, 0.48686549067497253, 0.63793087005615234, 0.7695242166519165, 0.79422104358673096, 0.78804725408554077, 0.56884032487869263, 0.029388852417469025, -0.2957288920879364, 0.2640567421913147, -0.3267342746257782, -0.056589394807815552, 0.12511873245239258, -0.2730787992477417, 0.10684344917535782, -0.14700496196746826, 0.089537337422370911, -0.23474514484405518, -0.11347027868032455, -0.39647576212882996, -0.2990041971206665, 0.10931763797998428, 0.21781940758228302, 0.29737290740013123, -0.023223865777254105, 0.039936061948537827, 0.10889443755149841, -0.096335917711257935, -0.15953153371810913, -0.23230837285518646, -0.37313550710678101, 0.091212451457977295, 0.15125435590744019, 0.3091161847114563, 0.44624283909797668, 0.40841257572174072, 0.52405083179473877, 0.75306940078735352, 0.83575445413589478, 0.8047223687171936, 0.015696646645665169, -0.47653406858444214, 0.11252743750810623, -0.26115939021110535, 0.19409611821174622, 0.049434628337621689, 0.047600343823432922, 0.28974735736846924, 0.24141654372215271, 0.19329376518726349, 0.24559842050075531, 0.028328433632850647, -0.37924835085868835, 0.5512845516204834, 0.089230209589004517, -0.10424252599477768, -0.06851833313703537, 0.043632220476865768, 0.25982588529586792, -0.0096271056681871414, 0.10389257967472076, -0.10181998461484909, -0.01260319072753191, -0.21105708181858063, -0.65639150142669678, -0.19258666038513184, -0.038882367312908173, 0.12675152719020844, 0.22024253010749817, 0.093852527439594269, -0.013980373740196228, 0.20161592960357666, 0.25443994998931885, -0.081088989973068237, -0.18787148594856262, -0.39903506636619568, 0.18260371685028076, 0.12564554810523987, -0.091459967195987701, -0.13906966149806976, -0.11291389912366867, 0.062161564826965332, 0.18292166292667389, 0.012137028388679028, 
  -0.19895157217979431, 0.29492029547691345, 0.22669599950313568, -0.4371965229511261, -0.060350596904754639, -0.39857196807861328, -0.29870525002479553, -0.52400285005569458, -0.39089673757553101, -0.23667339980602264, -0.4204685389995575, -0.65655773878097534, -0.42047062516212463, 0.65495914220809937, 0.097480744123458862, -0.27048513293266296, 0.055512666702270508, -0.1151115819811821, -0.26723712682723999, -0.090475015342235565, -0.26844146847724915, -0.1652800440788269, -0.036004349589347839, 0.41214123368263245, -0.053578458726406097, -0.060546223074197769, -0.14010666310787201, 0.15051163733005524, 0.31114950776100159, 0.017553210258483887, 0.20008300244808197, 0.045624744147062302, 0.10787694156169891, -0.098985373973846436, -0.13471469283103943, 0.14612050354480743, -0.40306678414344788, -0.22075489163398743, -0.42227455973625183, -0.16887928545475006, -0.39505863189697266, -0.21851293742656708, -0.34380349516868591, -0.32412800192832947, -0.48453360795974731, -0.11171137541532516, 0.80341750383377075, -0.19366864860057831, -0.11207060515880585, 0.026257311925292015, -0.15557537972927094, -0.12826943397521973, -0.13090424239635468, -0.21772165596485138, 0.084188655018806458, 0.12144697457551956, 0.27544975280761719, -0.30543333292007446, 0.049294427037239075, 0.029654616490006447, -0.15309114754199982, -0.080693148076534271, 0.15774230659008026, -0.039721384644508362, 0.04357808455824852, 0.23596177995204926, 0.019920319318771362, -0.75537008047103882, 0.61511045694351196, -0.23300866782665253, -0.17095054686069489, -0.13755278289318085, 0.099549882113933563, 0.036780495196580887, -0.09148108959197998, 0.21998223662376404, 0.059449799358844757, -0.0084488801658153534, 0.079372726380825043, -0.12466122210025787, -0.003506943117827177, 0.079736843705177307, 0.3079010546207428, 0.10306324064731598, 0.0086720408871769905, 0.30089008808135986, 0.01013663224875927, 0.1060929074883461, -0.004899198655039072, 0.13841235637664795, 0.17465928196907043, 0.19947375357151031, -0.063262000679969788, 0.18439571559429169, 0.18166875839233398, 0.34698241949081421, -0.071750015020370483, 0.29122129082679749, 0.00086676620412617922, 
  -0.30913141369819641, 0.35035797953605652, 1.1174978017807007, 0.0077741704881191254, -0.45686507225036621, -0.53324568271636963, -0.35099023580551147, -0.58041256666183472, -0.60112953186035156, -0.39779543876647949, -0.28894856572151184, 0.27980571985244751, 0.49182918667793274, -0.64230877161026001, -0.10982464998960495, -0.33483651280403137, -0.54658013582229614, -0.53016507625579834, -0.40702077746391296, -0.33477744460105896, -0.70397961139678955, -0.53548604249954224, -0.258708655834198, 0.38533687591552734, 0.17940124869346619, 0.2470346987247467, -0.15444834530353546, -0.20257073640823364, 0.02583126537501812, -0.37158834934234619, -0.62412893772125244, -0.059305835515260696, -0.10774201154708862, -0.20424294471740723, 0.4684428870677948, 1.3642576932907104, 0.054947935044765472, -0.61059212684631348, -0.36121144890785217, -0.66940325498580933, -0.61892563104629517, -0.68288546800613403, -0.43365243077278137, -0.576957106590271, -0.0070036668330430984, -0.68092024326324463, -0.35592767596244812, -0.12096491456031799, -0.36439290642738342, -0.18306839466094971, -0.53558748960494995, -0.57648384571075439, -0.50925081968307495, -0.50714033842086792, -0.28702971339225769, 0.034744691103696823, 0.90218627452850342, 0.42610487341880798, -0.19383908808231354, -0.42732733488082886, -0.30538341403007507, -0.23383060097694397, -0.11534692347049713, -0.50924956798553467, -0.34742426872253418, -0.11695796251296997, 0.040026158094406128, -0.39350208640098572, -0.28859210014343262, 0.04140041396021843, -0.097540795803070068, -0.44806352257728577, -0.26134029030799866, -0.20172157883644104, -0.10164438188076019, -0.44952455163002014, -0.18565276265144348, -0.013167978264391422, -0.18524572253227234, 0.7619747519493103, -0.15534454584121704, -0.4522683322429657, -0.20443606376647949, -0.34976449608802795, -0.20474821329116821, -0.25534400343894958, -0.20044104754924774, -0.44985157251358032, -0.070503771305084229, -1.0362322330474854, 0.93903237581253052, -0.048982858657836914, -0.45688000321388245, -0.33935171365737915, -0.18223927915096283, -0.33005636930465698, -0.21207654476165771, -0.17735864222049713, -0.13651274144649506, 
  0.50391674041748047, -0.51962816715240479, -0.33180597424507141, 0.66315799951553345, 0.95731145143508911, 0.89855241775512695, 0.96127551794052124, 0.78936851024627686, 0.54350310564041138, 0.40239095687866211, 0.29829117655754089, 0.15710613131523132, -0.14841455221176147, -0.36336177587509155, 0.36096611618995667, 0.24928086996078491, 0.089952357113361359, 0.06924150139093399, -0.0021513688843697309, -0.054756004363298416, 0.070191048085689545, 0.1364385187625885, 0.50338608026504517, -0.21545286476612091, -0.7723701000213623, 0.56298291683197021, 0.46564581990242004, 0.50691413879394531, 0.27025437355041504, 0.22311404347419739, 0.25052797794342041, 0.073090888559818268, 0.21795378625392914, 0.77240246534347534, 0.11329975724220276, -0.85049891471862793, 0.69661742448806763, 0.66033810377120972, 0.54750680923461914, 0.75178152322769165, 0.81640994548797607, 0.62715202569961548, 1.0003440380096436, 0.73524308204650879, 0.056128419935703278, 0.33609157800674438, -0.25224423408508301, 0.1056877002120018, 0.46431916952133179, 0.2628767192363739, 0.054997231811285019, 0.15720991790294647, 0.28661814332008362, 0.19950217008590698, 0.092473261058330536, 0.061726830899715424, -0.31253063678741455, -0.39168733358383179, 0.58926677703857422, 0.61353784799575806, 0.17106425762176514, 0.51673179864883423, 0.2914772629737854, 0.36623525619506836, 0.11151321232318878, 0.35631102323532104, 0.011129601858556271, 1.138698935508728, -0.65785253047943115, 0.239918053150177, 0.55222088098526001, 0.36734926700592041, 0.57600122690200806, 0.40189665555953979, 0.30543661117553711, 0.45152419805526733, 0.57155251502990723, -0.090649604797363281, -0.44125056266784668, -0.22232036292552948, 0.60351169109344482, 0.24902684986591339, 0.35761138796806335, 0.5432630181312561, 0.36078682541847229, 0.57030904293060303, 0.39443096518516541, 0.549155592918396, -0.083781473338603973, 0.2416435033082962, -0.17716869711875916, 0.63596093654632568, 0.57425904273986816, 0.24733899533748627, 0.539894700050354, 0.39713650941848755, 0.20708204805850983, 0.35533609986305237, 0.40685039758682251, 
  -0.22953945398330688, 0.21687674522399902, 0.019350688904523849, -0.017423676326870918, -0.14819802343845367, 0.099690131843090057, -0.22638703882694244, -0.20316557586193085, -0.12436731159687042, 0.085509613156318665, -0.22271007299423218, 0.015558063983917236, -0.020368335768580437, -0.019824020564556122, 0.1270228773355484, -0.26128742098808289, -0.11031161248683929, 0.059295110404491425, 0.045171745121479034, 0.060659367591142654, -0.03978685662150383, -0.18997983634471893, -0.026175277307629585, -0.19134588539600372, -0.04748900979757309, -0.15546944737434387, 0.045452192425727844, -0.0079061714932322502, -0.068775765597820282, -0.066935829818248749, -0.29137533903121948, -0.26779991388320923, -0.28309828042984009, 0.037553474307060242, 0.13828647136688232, 0.018300952389836311, -0.15104655921459198, 0.044917646795511246, -0.103627048432827, 0.073018409311771393, 0.094030924141407013, -0.22229234874248505, 0.082718685269355774, -0.11800487339496613, -0.17446787655353546, 0.066213920712471008, -0.16392937302589417, 0.11621692776679993, -0.17263342440128326, 0.056321576237678528, -0.11993934214115143, 0.030824078246951103, -0.03827885165810585, -0.017892729490995407, -0.049005210399627686, 0.032003015279769897, -0.00054902362171560526, -0.050579946488142014, -0.1238560825586319, -0.27195671200752258, 0.039347659796476364, -0.20764569938182831, -0.25556740164756775, -0.17050932347774506, -0.10482356697320938, 0.014852617867290974, -0.20472277700901031, -0.14809882640838623, -0.17363332211971283, -0.15631628036499023, 0.089489802718162537, -0.12962739169597626, -0.034922301769256592, -0.20433546602725983, -0.18269610404968262, 0.076184801757335663, -0.18438410758972168, -0.17837147414684296, -0.10401978343725204, 0.22375193238258362, -0.050543040037155151, 0.11914154142141342, 0.047231666743755341, -0.20877240598201752, -0.15759368240833282, -0.29809314012527466, -0.19640573859214783, 0.017982874065637589, 0.022000696510076523, 0.23383654654026031, -0.093665421009063721, -0.10947633534669876, -0.086819879710674286, -0.17705917358398438, 0.01050015352666378, -0.097765743732452393, -0.29634198546409607, -0.18581263720989227, -0.10420809686183929, 
  -1.3707402944564819, 0.37659657001495361, 0.57197904586791992, -0.69212383031845093, -0.50540763139724731, -0.52296143770217896, -0.58475053310394287, -0.56465983390808105, -0.36960980296134949, -0.3588205873966217, -0.50033825635910034, 0.66151249408721924, 0.20655785501003265, -1.2767351865768433, -0.76103079319000244, -0.37914559245109558, -0.29871171712875366, -0.30761951208114624, -0.58264279365539551, -0.39286842942237854, -0.47597974538803101, -0.56166481971740723, -0.22253400087356567, 0.30253306031227112, 0.01827332004904747, -0.83054935932159424, -0.85410666465759277, -0.81974130868911743, -0.65782970190048218, -0.63448101282119751, -0.76137000322341919, -0.87158727645874023, -0.89091724157333374, -1.0562126636505127, 0.21948978304862976, 0.54309016466140747, -0.72082650661468506, -0.54787158966064453, -0.68480181694030762, -0.45231536030769348, -0.40574586391448975, -0.13593150675296783, -0.56961089372634888, -0.66906595230102539, 0.97931927442550659, -0.30229833722114563, -1.2682664394378662, -0.44121581315994263, -0.23677873611450195, -0.35958743095397949, -0.19156870245933533, -0.18408924341201782, -0.36248886585235596, -0.27079480886459351, -0.39045560359954834, -0.019573180004954338, 0.28020086884498596, -0.3721354603767395, -0.7492489218711853, -0.73233884572982788, -0.75261586904525757, -0.73743760585784912, -0.6903412938117981, -0.36960896849632263, -0.68191647529602051, -0.72036325931549072, -0.039928663522005081, 0.12619772553443909, 0.16303052008152008, -0.55519700050354004, -0.853904128074646, -0.93951416015625, -0.62472587823867798, -0.80758911371231079, -0.72506570816040039, -0.97983759641647339, -0.59555482864379883, -0.026806589215993881, 1.167607307434082, 0.24129748344421387, -0.66751593351364136, -0.5195770263671875, -0.66814637184143066, -0.99045616388320923, -0.67841851711273193, -0.63174545764923096, -0.75102585554122925, -0.93586164712905884, 0.036199811846017838, -0.53203999996185303, -0.037918519228696823, -0.58380287885665894, -0.54133939743041992, -0.62529146671295166, -0.89093255996704102, -0.86193645000457764, -0.54563456773757935, -0.60385578870773315, -0.54493331909179688, 
  -0.12047730386257172, -0.010094107128679752, -0.18843184411525726, -0.2123638391494751, 0.21851924061775208, -0.071042880415916443, 0.059208247810602188, 0.18018512427806854, -0.10552698373794556, 0.039874821901321411, 0.041836321353912354, 0.073278553783893585, 0.068970747292041779, -0.089746966958045959, -0.057588081806898117, -0.042596146464347839, 0.03193361684679985, -0.013385744765400887, -0.094893269240856171, 0.1989632248878479, -0.18013255298137665, -0.040189791470766068, 0.10280734300613403, -0.20282948017120361, 0.21808990836143494, -0.048944298177957535, -0.1789749413728714, 0.19347262382507324, 0.10834798216819763, 0.093513183295726776, 0.10878002643585205, 0.017374934628605843, 0.01765904575586319, 0.028382452204823494, -0.22085772454738617, -0.18302939832210541, 0.17866864800453186, 0.016418613493442535, -0.2035788893699646, 0.017826588824391365, -0.1946491003036499, 0.11957796663045883, -0.19065409898757935, 0.14873911440372467, 0.18893669545650482, 0.22456920146942139, 0.11468116194009781, 0.17013843357563019, 0.0022941767238080502, -0.18244798481464386, -0.11393781006336212, 0.12545353174209595, -0.12423053383827209, 0.22262178361415863, 0.18770106136798859, -0.16940391063690186, 0.00079890270717442036, -0.04357784241437912, 0.06529410183429718, -0.20371778309345245, 0.14689971506595612, -0.077702783048152924, 0.12409550696611404, 0.14803087711334229, 0.16790035367012024, -0.089066468179225922, -0.10108069330453873, -0.11700612306594849, -0.045646429061889648, 0.023935874924063683, 0.14205682277679443, 0.12804915010929108, -0.23674139380455017, -0.21875134110450745, 0.083514921367168427, 0.14555551111698151, -0.20755496621131897, -0.097114503383636475, 0.11643370240926743, -0.22974324226379395, 0.12754444777965546, -0.24086184799671173, -0.11744944751262665, -0.2403891384601593, 0.13575012981891632, -0.034982394427061081, 0.17645840346813202, -0.21458955109119415, -0.12668910622596741, -0.13312578201293945, 0.04234764352440834, -0.19000169634819031, -0.20132623612880707, 0.15432663261890411, 0.19314996898174286, -0.14164884388446808, 0.11488828063011169, -0.18631961941719055, 0.10596954077482224, 
  -0.14964872598648071, -0.046965882182121277, 0.17861776053905487, 0.19390825927257538, 0.1337646096944809, 0.084195241332054138, -0.0049680918455123901, -0.15088379383087158, -0.060175344347953796, -0.055578470230102539, -0.18851423263549805, -0.14959406852722168, 0.16456179320812225, -0.022310033440589905, -0.096829310059547424, 0.1545899361371994, -0.087849363684654236, -0.036646366119384766, -0.18466717004776001, -0.037488266825675964, 0.13942475616931915, -0.19272637367248535, -0.066734954714775085, 0.21793560683727264, -0.14186915755271912, -0.18633036315441132, 0.16664357483386993, -0.059819340705871582, 0.042900130152702332, -0.013704240322113037, 0.12367887794971466, 0.084719374775886536, 0.1812698096036911, 0.021815091371536255, 0.095037743449211121, 0.1429259330034256, 0.094915643334388733, -0.027761772274971008, 0.049859628081321716, 0.13430409133434296, -0.077163949608802795, -0.21854971349239349, 0.064007148146629333, -0.088312938809394836, 0.21096207201480865, 0.17259518802165985, -0.1679612398147583, 0.10012142360210419, 0.1166185587644577, 0.016901656985282898, 0.019799321889877319, -0.18671560287475586, -0.15922382473945618, -0.099029257893562317, 0.08383844792842865, -0.15981090068817139, 0.029993996024131775, 0.087780788540840149, -0.21040990948677063, 0.067744836211204529, 0.022558480501174927, -0.056593075394630432, 0.21867711842060089, -0.17902126908302307, 0.1639946848154068, 0.082513913512229919, -0.16802811622619629, 0.19709448516368866, -0.15975832939147949, 0.12555746734142303, 0.073268428444862366, -0.11639747023582458, -0.012875452637672424, -0.1823308914899826, 0.19780577719211578, -0.13621166348457336, -0.12631407380104065, -0.12728065252304077, 0.12182639539241791, -0.12043977528810501, -0.16866829991340637, 0.11703084409236908, -0.097615167498588562, -0.2010839581489563, -0.21624276041984558, -0.11511588096618652, 0.00685843825340271, 0.052688077092170715, -0.10701991617679596, 0.041788175702095032, -0.11853482574224472, 0.20377711951732635, 0.046195134520530701, -0.1099114790558815, 0.04288502037525177, 0.19319631159305573, 0.030828282237052917, 0.21579937636852264, -0.040183678269386292, 
  -0.37786993384361267, 0.2996598482131958, 0.46748992800712585, -0.15334849059581757, -0.20510978996753693, -0.43072164058685303, -0.58142125606536865, -0.7979736328125, -0.2879183292388916, -0.42702347040176392, -0.73610085248947144, -0.21080300211906433, -0.3253757655620575, 0.13197705149650574, 0.19563215970993042, 0.14590300619602203, 0.1593945175409317, -0.08152683824300766, 0.21787682175636292, 0.12762957811355591, 0.10367360711097717, 0.28840172290802002, -0.021606538444757462, 0.26752722263336182, 0.89926457405090332, 0.14628443121910095, -0.012742392718791962, 0.18905428051948547, -0.29142904281616211, -0.31994476914405823, -0.30757132172584534, -0.27127483487129211, 0.075590908527374268, -0.15209925174713135, 0.45920741558074951, 0.28965875506401062, -0.025886125862598419, -0.27900406718254089, -0.14070582389831543, -0.41354098916053772, -0.57400405406951904, -0.44062858819961548, -0.27797245979309082, -0.46654146909713745, -0.47292527556419373, 0.053486756980419159, 0.21229931712150574, 0.13774973154067993, -0.096996106207370758, -0.19841386377811432, 0.21350331604480743, 0.20391832292079926, -0.020282858982682228, -0.0055848518386483192, -0.038678042590618134, -0.076912760734558105, 0.73711878061294556, 0.2555447518825531, -0.06837153434753418, -0.14166919887065887, 0.014798160642385483, -0.20893955230712891, 0.019621880725026131, -0.25131931900978088, -0.18115510046482086, 0.10854224860668182, 0.063401110470294952, -0.66062080860137939, 0.058539807796478271, -0.17274674773216248, 0.16627427935600281, -0.12337397038936615, 0.024255260825157166, -0.075951278209686279, -0.16503266990184784, 0.16358809173107147, 0.12949004769325256, -0.062940061092376709, 0.48274272680282593, 0.40823981165885925, -0.025136871263384819, 0.21616202592849731, -0.0082539794966578484, 0.082986176013946533, -0.14374586939811707, 0.27718463540077209, 0.038377247750759125, 0.23319311439990997, -0.25244605541229248, -0.2282831221818924, -0.24632512032985687, 0.038138668984174728, 0.16377653181552887, -0.11704549193382263, 0.20844258368015289, 0.26903590559959412, 0.14946810901165009, 0.31444346904754639, 0.31704628467559814, 
};
const TfArray<2, int> tensor_dimension4 = { 2, { 20,99 } };
const ALIGN(16) float tensor_data5[10*20] = { 
  -0.29493096470832825, -0.014016687870025635, 0.10238280892372131, 0.27021783590316772, 0.34504836797714233, -0.28197428584098816, -0.10549691319465637, 0.029328862205147743, -0.36281353235244751, -0.40033057332038879, -0.099730208516120911, -0.13269908726215363, 0.36288246512413025, 0.33193263411521912, -0.078024014830589294, -0.013355516828596592, -0.39916282892227173, 0.070205636322498322, -0.12740728259086609, 0.072904355823993683, 
  -0.32733887434005737, 0.062615931034088135, -0.2165655642747879, 0.22663119435310364, 0.10580015182495117, 0.028807878494262695, 0.30821490287780762, -0.18902638554573059, -0.14192365109920502, -0.3231237530708313, 0.017948344349861145, -0.31521004438400269, -0.12237156182527542, -0.13121494650840759, -0.33105406165122986, -0.29742291569709778, -0.18754786252975464, 0.2822265625, 0.20760005712509155, -0.36843103170394897, 
  -0.4377291202545166, 0.31785285472869873, 0.10381579399108887, -0.22245311737060547, 0.27100521326065063, -0.070923417806625366, 0.11924205720424652, -0.23779420554637909, 0.28063839673995972, 0.23793236911296844, -0.26737913489341736, -0.19751542806625366, 0.072579421103000641, -0.40760600566864014, 0.11836068332195282, -0.13432557880878448, -0.10057831555604935, 0.42122942209243774, -0.38097769021987915, -0.11311402171850204, 
  -0.19059717655181885, -0.088203370571136475, -0.27911040186882019, -0.22520749270915985, -0.15275761485099792, 0.23387846350669861, 0.33201318979263306, 0.084838062524795532, 0.40084898471832275, -0.16728766262531281, 0.30314567685127258, 0.040685534477233887, -0.030006119981408119, -0.11986437439918518, -0.058649096637964249, 0.41798955202102661, 1.249598503112793, 0.12087708711624146, 0.1122550368309021, 0.014932193793356419, 
  -0.073585741221904755, 0.019939761608839035, -0.23178304731845856, -0.3453974723815918, 0.0069648255594074726, 0.024910841137170792, -0.20877262949943542, 0.0073198173195123672, -0.26367232203483582, 0.33580857515335083, -0.078822389245033264, -0.46897357702255249, -0.61460685729980469, 0.098984822630882263, 0.085560500621795654, 0.081021785736083984, 0.032110638916492462, -0.38482159376144409, 0.41780859231948853, 0.13226893544197083, 
  0.059690438210964203, 0.34905964136123657, -0.34178513288497925, 0.0067205713130533695, -0.29656919836997986, -0.12349063903093338, -0.018210604786872864, -0.19959829747676849, 0.40578079223632812, -0.59788423776626587, -0.53850668668746948, 0.40777647495269775, -0.36197865009307861, 0.16802641749382019, -0.21736885607242584, 0.33839470148086548, -0.45488530397415161, -0.034634679555892944, -0.36985573172569275, 0.27099791169166565, 
  0.26631113886833191, -0.14074701070785522, 0.049364060163497925, 0.26846721768379211, 0.56241077184677124, -0.18747502565383911, 0.014488194137811661, 0.1784617006778717, 0.16844689846038818, 0.16898344457149506, -0.054078307002782822, 0.09411090612411499, -0.32651114463806152, -0.35936358571052551, 0.45615774393081665, 0.017249591648578644, 0.40033569931983948, -0.090127915143966675, 0.15623247623443604, -0.15366517007350922, 
  -0.37779024243354797, 0.3651120662689209, -0.23938150703907013, -0.33507299423217773, -0.049478169530630112, -0.038466021418571472, -0.18556062877178192, -0.40806180238723755, 0.39064010977745056, 0.21557134389877319, 0.014255520887672901, 0.38940721750259399, -0.2023785263299942, -0.027024269104003906, -0.16514566540718079, -0.16529113054275513, -0.32752782106399536, 0.069599449634552002, -0.17828625440597534, 0.16064774990081787, 
  -0.40530502796173096, 0.2880551815032959, 0.029932709410786629, 0.17071494460105896, 0.31866049766540527, -0.082943402230739594, 0.18955506384372711, -0.48467272520065308, -0.033076316118240356, -0.39817377924919128, -0.0021620471961796284, 0.23428729176521301, 0.2548612654209137, 0.32566669583320618, -0.090806342661380768, 0.17835305631160736, -0.42089360952377319, 0.37203201651573181, -0.0054910182952880859, -0.021673614159226418, 
  -0.22692568600177765, 0.13775122165679932, 0.088280335068702698, 0.240203857421875, -0.30595025420188904, 0.2154935747385025, 0.2007841020822525, -0.22408862411975861, 0.29146748781204224, -0.19799196720123291, -0.30579739809036255, 0.12248644232749939, -0.46604138612747192, -0.17283408343791962, -0.34909623861312866, 0.016769079491496086, 0.21911434829235077, 0.38693976402282715, -0.14276808500289917, 0.39394792914390564, 
};
const TfArray<2, int> tensor_dimension5 = { 2, { 10,20 } };
const ALIGN(16) float tensor_data6[6*10] = { 
  -0.4013359546661377, -0.67715352773666382, 0.31125518679618835, 0.22204609215259552, 0.16685973107814789, -0.21095003187656403, 0.2188144326210022, 0.37627029418945312, -0.26807257533073425, -0.30815371870994568, 
  0.31513470411300659, 0.47631767392158508, 0.21202585101127625, -0.50480443239212036, 0.46746310591697693, -0.36123287677764893, 0.4294896125793457, -0.33876755833625793, -0.56861519813537598, 4.1436538595007733e-05, 
  -0.78817903995513916, 0.021260486915707588, 0.46364003419876099, -0.062064684927463531, -0.28656873106956482, -0.10945331305265427, 0.33848273754119873, -0.041097093373537064, -0.50342726707458496, 0.51033157110214233, 
  -0.56707847118377686, 0.44129371643066406, 0.0053388318046927452, 0.20762714743614197, 0.27799922227859497, 0.20498131215572357, 0.30592960119247437, -0.067979954183101654, 0.39969536662101746, -0.20855046808719635, 
  0.031201478093862534, -0.24042855203151703, 0.045007739216089249, 0.22048428654670715, -0.60793048143386841, 0.12555685639381409, 0.252032071352005, 0.21806737780570984, 0.38555973768234253, 0.15441940724849701, 
  -0.14260230958461761, 0.22807303071022034, 0.11071106046438217, 0.16001756489276886, -0.27796220779418945, -0.61701780557632446, 0.27616468071937561, -0.36903086304664612, 0.45061707496643066, -0.17173793911933899, 
};
const TfArray<2, int> tensor_dimension6 = { 2, { 6,10 } };
const TfArray<2, int> tensor_dimension7 = { 2, { 1,20 } };
const TfArray<2, int> tensor_dimension8 = { 2, { 1,10 } };
const TfArray<2, int> tensor_dimension9 = { 2, { 1,6 } };
const TfArray<2, int> tensor_dimension10 = { 2, { 1,6 } };
const TfLiteFullyConnectedParams opdata0 = { kTfLiteActRelu, kTfLiteFullyConnectedWeightsFormatDefault, false, false };
const TfArray<3, int> inputs0 = { 3, { 0,4,3 } };
const TfArray<1, int> outputs0 = { 1, { 7 } };
const TfLiteFullyConnectedParams opdata1 = { kTfLiteActRelu, kTfLiteFullyConnectedWeightsFormatDefault, false, false };
const TfArray<3, int> inputs1 = { 3, { 7,5,2 } };
const TfArray<1, int> outputs1 = { 1, { 8 } };
const TfLiteFullyConnectedParams opdata2 = { kTfLiteActNone, kTfLiteFullyConnectedWeightsFormatDefault, false, false };
const TfArray<3, int> inputs2 = { 3, { 8,6,1 } };
const TfArray<1, int> outputs2 = { 1, { 9 } };
const TfLiteSoftmaxParams opdata3 = { 1 };
const TfArray<1, int> inputs3 = { 1, { 9 } };
const TfArray<1, int> outputs3 = { 1, { 10 } };
const TensorInfo_t tensorData[] = {
  { kTfLiteArenaRw, tensor_arena + 0, (TfLiteIntArray*)&tensor_dimension0, 396, },
  { kTfLiteMmapRo, (void*)tensor_data1, (TfLiteIntArray*)&tensor_dimension1, 24, },
  { kTfLiteMmapRo, (void*)tensor_data2, (TfLiteIntArray*)&tensor_dimension2, 40, },
  { kTfLiteMmapRo, (void*)tensor_data3, (TfLiteIntArray*)&tensor_dimension3, 80, },
  { kTfLiteMmapRo, (void*)tensor_data4, (TfLiteIntArray*)&tensor_dimension4, 7920, },
  { kTfLiteMmapRo, (void*)tensor_data5, (TfLiteIntArray*)&tensor_dimension5, 800, },
  { kTfLiteMmapRo, (void*)tensor_data6, (TfLiteIntArray*)&tensor_dimension6, 240, },
  { kTfLiteArenaRw, tensor_arena + 400, (TfLiteIntArray*)&tensor_dimension7, 80, },
  { kTfLiteArenaRw, tensor_arena + 0, (TfLiteIntArray*)&tensor_dimension8, 40, },
  { kTfLiteArenaRw, tensor_arena + 48, (TfLiteIntArray*)&tensor_dimension9, 24, },
  { kTfLiteArenaRw, tensor_arena + 0, (TfLiteIntArray*)&tensor_dimension10, 24, },
};const NodeInfo_t nodeData[] = {
  { (TfLiteIntArray*)&inputs0, (TfLiteIntArray*)&outputs0, const_cast<void*>(static_cast<const void*>(&opdata0)), OP_FULLY_CONNECTED, },
  { (TfLiteIntArray*)&inputs1, (TfLiteIntArray*)&outputs1, const_cast<void*>(static_cast<const void*>(&opdata1)), OP_FULLY_CONNECTED, },
  { (TfLiteIntArray*)&inputs2, (TfLiteIntArray*)&outputs2, const_cast<void*>(static_cast<const void*>(&opdata2)), OP_FULLY_CONNECTED, },
  { (TfLiteIntArray*)&inputs3, (TfLiteIntArray*)&outputs3, const_cast<void*>(static_cast<const void*>(&opdata3)), OP_SOFTMAX, },
};
static void* overflow_buffers[EI_MAX_OVERFLOW_BUFFER_COUNT];
static size_t overflow_buffers_ix = 0;
static void * AllocatePersistentBuffer(struct TfLiteContext* ctx,
                                       size_t bytes) {
  void *ptr;
  if (current_location - bytes < tensor_boundary) {
    if (overflow_buffers_ix > EI_MAX_OVERFLOW_BUFFER_COUNT - 1) {
      ei_printf("ERR: Failed to allocate persistent buffer of size %d, does not fit in tensor arena and reached EI_MAX_OVERFLOW_BUFFER_COUNT\n",
        (int)bytes);
      return NULL;
    }

    // OK, this will look super weird, but.... we have CMSIS-NN buffers which
    // we cannot calculate beforehand easily.
    ptr = ei_calloc(bytes, 1);
    if (ptr == NULL) {
      ei_printf("ERR: Failed to allocate persistent buffer of size %d\n", (int)bytes);
      return NULL;
    }
    overflow_buffers[overflow_buffers_ix++] = ptr;
    return ptr;
  }

  current_location -= bytes;

  ptr = current_location;
  memset(ptr, 0, bytes);

  return ptr;
}
typedef struct {
  size_t bytes;
  void *ptr;
} scratch_buffer_t;
static scratch_buffer_t scratch_buffers[EI_MAX_SCRATCH_BUFFER_COUNT];
static size_t scratch_buffers_ix = 0;

static TfLiteStatus RequestScratchBufferInArena(struct TfLiteContext* ctx, size_t bytes,
                                                int* buffer_idx) {
  if (scratch_buffers_ix > EI_MAX_SCRATCH_BUFFER_COUNT - 1) {
    ei_printf("ERR: Failed to allocate scratch buffer of size %d, reached EI_MAX_SCRATCH_BUFFER_COUNT\n",
      (int)bytes);
    return kTfLiteError;
  }

  scratch_buffer_t b;
  b.bytes = bytes;

  b.ptr = AllocatePersistentBuffer(ctx, b.bytes);
  if (!b.ptr) {
    ei_printf("ERR: Failed to allocate scratch buffer of size %d\n",
      (int)bytes);
    return kTfLiteError;
  }

  scratch_buffers[scratch_buffers_ix] = b;
  *buffer_idx = scratch_buffers_ix;

  scratch_buffers_ix++;

  return kTfLiteOk;
}

static void* GetScratchBuffer(struct TfLiteContext* ctx, int buffer_idx) {
  if (buffer_idx > (int)scratch_buffers_ix) {
    return NULL;
  }
  return scratch_buffers[buffer_idx].ptr;
}

static TfLiteTensor* GetTensor(const struct TfLiteContext* context,
                               int tensor_idx) {
  return &tflTensors[tensor_idx];
}

static TfLiteEvalTensor* GetEvalTensor(const struct TfLiteContext* context,
                                       int tensor_idx) {
  return &tflEvalTensors[tensor_idx];
}

} // namespace

TfLiteStatus trained_model_init( void*(*alloc_fnc)(size_t,size_t) ) {
#ifdef EI_CLASSIFIER_ALLOCATION_HEAP
  tensor_arena = (uint8_t*) alloc_fnc(16, kTensorArenaSize);
  if (!tensor_arena) {
    ei_printf("ERR: failed to allocate tensor arena\n");
    return kTfLiteError;
  }
#else
  memset(tensor_arena, 0, kTensorArenaSize);
#endif
  tensor_boundary = tensor_arena;
  current_location = tensor_arena + kTensorArenaSize;
  ctx.AllocatePersistentBuffer = &AllocatePersistentBuffer;
  ctx.RequestScratchBufferInArena = &RequestScratchBufferInArena;
  ctx.GetScratchBuffer = &GetScratchBuffer;
  ctx.GetTensor = &GetTensor;
  ctx.GetEvalTensor = &GetEvalTensor;
  ctx.tensors = tflTensors;
  ctx.tensors_size = 11;
  for (size_t i = 0; i < 11; ++i) {
    tflTensors[i].type = kTfLiteFloat32;
    tflEvalTensors[i].type = kTfLiteFloat32;
    tflTensors[i].is_variable = 0;

#if defined(EI_CLASSIFIER_ALLOCATION_HEAP)
    tflTensors[i].allocation_type = tensorData[i].allocation_type;
#else
    tflTensors[i].allocation_type = (tensor_arena <= tensorData[i].data && tensorData[i].data < tensor_arena + kTensorArenaSize) ? kTfLiteArenaRw : kTfLiteMmapRo;
#endif
    tflTensors[i].bytes = tensorData[i].bytes;
    tflTensors[i].dims = tensorData[i].dims;
    tflEvalTensors[i].dims = tensorData[i].dims;

#if defined(EI_CLASSIFIER_ALLOCATION_HEAP)
    if(tflTensors[i].allocation_type == kTfLiteArenaRw){
      uint8_t* start = (uint8_t*) ((uintptr_t)tensorData[i].data + (uintptr_t) tensor_arena);

     tflTensors[i].data.data =  start;
     tflEvalTensors[i].data.data =  start;
    }
    else {
       tflTensors[i].data.data = tensorData[i].data;
       tflEvalTensors[i].data.data = tensorData[i].data;
    }
#else
    tflTensors[i].data.data = tensorData[i].data;
    tflEvalTensors[i].data.data = tensorData[i].data;
#endif // EI_CLASSIFIER_ALLOCATION_HEAP
    tflTensors[i].quantization.type = kTfLiteNoQuantization;
    if (tflTensors[i].allocation_type == kTfLiteArenaRw) {
      auto data_end_ptr = (uint8_t*)tflTensors[i].data.data + tensorData[i].bytes;
      if (data_end_ptr > tensor_boundary) {
        tensor_boundary = data_end_ptr;
      }
    }
  }
  if (tensor_boundary > current_location /* end of arena size */) {
    ei_printf("ERR: tensor arena is too small, does not fit model - even without scratch buffers\n");
    return kTfLiteError;
  }
  registrations[OP_FULLY_CONNECTED] = Register_FULLY_CONNECTED();
  registrations[OP_SOFTMAX] = Register_SOFTMAX();

  for (size_t i = 0; i < 4; ++i) {
    tflNodes[i].inputs = nodeData[i].inputs;
    tflNodes[i].outputs = nodeData[i].outputs;
    tflNodes[i].builtin_data = nodeData[i].builtin_data;
tflNodes[i].custom_initial_data = nullptr;
      tflNodes[i].custom_initial_data_size = 0;
if (registrations[nodeData[i].used_op_index].init) {
      tflNodes[i].user_data = registrations[nodeData[i].used_op_index].init(&ctx, (const char*)tflNodes[i].builtin_data, 0);
    }
  }
  for (size_t i = 0; i < 4; ++i) {
    if (registrations[nodeData[i].used_op_index].prepare) {
      TfLiteStatus status = registrations[nodeData[i].used_op_index].prepare(&ctx, &tflNodes[i]);
      if (status != kTfLiteOk) {
        return status;
      }
    }
  }
  return kTfLiteOk;
}

static const int inTensorIndices[] = {
  0, 
};
TfLiteTensor* trained_model_input(int index) {
  return &ctx.tensors[inTensorIndices[index]];
}

static const int outTensorIndices[] = {
  10, 
};
TfLiteTensor* trained_model_output(int index) {
  return &ctx.tensors[outTensorIndices[index]];
}

TfLiteStatus trained_model_invoke() {
  for (size_t i = 0; i < 4; ++i) {
    TfLiteStatus status = registrations[nodeData[i].used_op_index].invoke(&ctx, &tflNodes[i]);

#if EI_CLASSIFIER_PRINT_STATE
    ei_printf("layer %lu\n", i);
    ei_printf("    inputs:\n");
    for (size_t ix = 0; ix < tflNodes[i].inputs->size; ix++) {
      auto d = tensorData[tflNodes[i].inputs->data[ix]];

      size_t data_ptr = (size_t)d.data;

      if (d.allocation_type == kTfLiteArenaRw) {
        data_ptr = (size_t)tensor_arena + data_ptr;
      }

      if (d.type == TfLiteType::kTfLiteInt8) {
        int8_t* data = (int8_t*)data_ptr;
        ei_printf("        %lu (%zu bytes, ptr=%p, alloc_type=%d, type=%d): ", ix, d.bytes, data, (int)d.allocation_type, (int)d.type);
        for (size_t jx = 0; jx < d.bytes; jx++) {
          ei_printf("%d ", data[jx]);
        }
      }
      else {
        float* data = (float*)data_ptr;
        ei_printf("        %lu (%zu bytes, ptr=%p, alloc_type=%d, type=%d): ", ix, d.bytes, data, (int)d.allocation_type, (int)d.type);
        for (size_t jx = 0; jx < d.bytes / 4; jx++) {
          ei_printf("%f ", data[jx]);
        }
      }
      ei_printf("\n");
    }
    ei_printf("\n");

    ei_printf("    outputs:\n");
    for (size_t ix = 0; ix < tflNodes[i].outputs->size; ix++) {
      auto d = tensorData[tflNodes[i].outputs->data[ix]];

      size_t data_ptr = (size_t)d.data;

      if (d.allocation_type == kTfLiteArenaRw) {
        data_ptr = (size_t)tensor_arena + data_ptr;
      }

      if (d.type == TfLiteType::kTfLiteInt8) {
        int8_t* data = (int8_t*)data_ptr;
        ei_printf("        %lu (%zu bytes, ptr=%p, alloc_type=%d, type=%d): ", ix, d.bytes, data, (int)d.allocation_type, (int)d.type);
        for (size_t jx = 0; jx < d.bytes; jx++) {
          ei_printf("%d ", data[jx]);
        }
      }
      else {
        float* data = (float*)data_ptr;
        ei_printf("        %lu (%zu bytes, ptr=%p, alloc_type=%d, type=%d): ", ix, d.bytes, data, (int)d.allocation_type, (int)d.type);
        for (size_t jx = 0; jx < d.bytes / 4; jx++) {
          ei_printf("%f ", data[jx]);
        }
      }
      ei_printf("\n");
    }
    ei_printf("\n");
#endif // EI_CLASSIFIER_PRINT_STATE

    if (status != kTfLiteOk) {
      return status;
    }
  }
  return kTfLiteOk;
}

TfLiteStatus trained_model_reset( void (*free_fnc)(void* ptr) ) {
#ifdef EI_CLASSIFIER_ALLOCATION_HEAP
  free_fnc(tensor_arena);
#endif

  // scratch buffers are allocated within the arena, so just reset the counter so memory can be reused
  scratch_buffers_ix = 0;

  // overflow buffers are on the heap, so free them first
  for (size_t ix = 0; ix < overflow_buffers_ix; ix++) {
    ei_free(overflow_buffers[ix]);
  }
  overflow_buffers_ix = 0;
  return kTfLiteOk;
}
